<?xml version="1.0"?>
<opencv_storage>
<stage0>
  <maxWeakCount>33</maxWeakCount>
  <stageThreshold>-1.2526211738586426e+00</stageThreshold>
  <weakClassifiers>
    <_>
      <internalNodes>
        0 -1 92994 2.8173329308629036e-02</internalNodes>
      <leafValues>
        4.2890133336186409e-03 8.3985102176666260e-01</leafValues></_>
    <_>
      <internalNodes>
        0 -1 6785210 -5.3329046815633774e-02</internalNodes>
      <leafValues>
        6.6805207729339600e-01 -1.7249765992164612e-01</leafValues></_>
    <_>
      <internalNodes>
        0 -1 7993251 -8.2110296934843063e-03</internalNodes>
      <leafValues>
        7.3500007390975952e-01 -1.3217978179454803e-01</leafValues></_>
    <_>
      <internalNodes>
        0 -1 605642 -1.9650693982839584e-02</internalNodes>
      <leafValues>
        5.3345555067062378e-01 -1.8100130558013916e-01</leafValues></_>
    <_>
      <internalNodes>
        0 -1 5242964 1.4389867894351482e-02</internalNodes>
      <leafValues>
        -1.3727483153343201e-01 5.0138562917709351e-01</leafValues></_>
    <_>
      <internalNodes>
        0 -1 5996962 -4.0038611739873886e-02</internalNodes>
      <leafValues>
        4.5053321123123169e-01 -1.4019227027893066e-01</leafValues></_>
    <_>
      <internalNodes>
        0 -1 7797293 -8.3364266902208328e-03</internalNodes>
      <leafValues>
        4.8195481300354004e-01 -1.1538228392601013e-01</leafValues></_>
    <_>
      <internalNodes>
        0 -1 397327 9.5711741596460342e-03</internalNodes>
      <leafValues>
        -8.7556600570678711e-02 6.3114976882934570e-01</leafValues></_>
    <_>
      <internalNodes>
        0 -1 116631 -1.7697516828775406e-02</internalNodes>
      <leafValues>
        4.6008691191673279e-01 -1.3744612038135529e-01</leafValues></_>
    <_>
      <internalNodes>
        0 -1 15474 -6.4739855588413775e-05</internalNodes>
      <leafValues>
        -4.2790845036506653e-01 1.4037325978279114e-01</leafValues></_>
    <_>
      <internalNodes>
        0 -1 15469 4.5078479161020368e-05</internalNodes>
      <leafValues>
        1.1345801502466202e-01 -4.6385583281517029e-01</leafValues></_>
    <_>
      <internalNodes>
        0 -1 5261128 -1.1356827802956104e-02</internalNodes>
      <leafValues>
        3.9862027764320374e-01 -1.3605739176273346e-01</leafValues></_>
    <_>
      <internalNodes>
        0 -1 1333165 -3.0933551490306854e-02</internalNodes>
      <leafValues>
        5.5080986022949219e-01 -8.3565257489681244e-02</leafValues></_>
    <_>
      <internalNodes>
        0 -1 5385003 -9.6513619646430016e-03</internalNodes>
      <leafValues>
        4.3049988150596619e-01 -9.8123423755168915e-02</leafValues></_>
    <_>
      <internalNodes>
        0 -1 6390242 2.6669027283787727e-02</internalNodes>
      <leafValues>
        -5.3979758173227310e-02 6.4990741014480591e-01</leafValues></_>
    <_>
      <internalNodes>
        0 -1 5684167 -3.5236249677836895e-03</internalNodes>
      <leafValues>
        3.3529123663902283e-01 -9.3161687254905701e-02</leafValues></_>
    <_>
      <internalNodes>
        0 -1 8033433 -6.6538232204038650e-05</internalNodes>
      <leafValues>
        -2.6485231518745422e-01 1.3150075078010559e-01</leafValues></_>
    <_>
      <internalNodes>
        0 -1 3604435 -1.1711215600371361e-02</internalNodes>
      <leafValues>
        3.5284835100173950e-01 -9.6062555909156799e-02</leafValues></_>
    <_>
      <internalNodes>
        0 -1 4271161 1.5814730525016785e-01</internalNodes>
      <leafValues>
        -6.1881646513938904e-02 5.2668917179107666e-01</leafValues></_>
    <_>
      <internalNodes>
        0 -1 7188935 2.5584068149328232e-02</internalNodes>
      <leafValues>
        -7.0295415818691254e-02 4.4094485044479370e-01</leafValues></_>
    <_>
      <internalNodes>
        0 -1 7571541 -5.8055417612195015e-03</internalNodes>
      <leafValues>
        3.0973666906356812e-01 -1.0782133042812347e-01</leafValues></_>
    <_>
      <internalNodes>
        0 -1 5082575 -3.1856519635766745e-03</internalNodes>
      <leafValues>
        3.1897795200347900e-01 -9.0141899883747101e-02</leafValues></_>
    <_>
      <internalNodes>
        0 -1 315979 -6.0212805692572147e-05</internalNodes>
      <leafValues>
        -4.0766236186027527e-01 7.4060589075088501e-02</leafValues></_>
    <_>
      <internalNodes>
        0 -1 2493343 -2.3604817688465118e-03</internalNodes>
      <leafValues>
        3.0968925356864929e-01 -9.9095955491065979e-02</leafValues></_>
    <_>
      <internalNodes>
        0 -1 2283053 1.1558627011254430e-04</internalNodes>
      <leafValues>
        7.0864275097846985e-02 -4.3748301267623901e-01</leafValues></_>
    <_>
      <internalNodes>
        0 -1 6415683 -3.5403899382799864e-03</internalNodes>
      <leafValues>
        2.9412475228309631e-01 -9.9997088313102722e-02</leafValues></_>
    <_>
      <internalNodes>
        0 -1 4866187 -8.2382224500179291e-03</internalNodes>
      <leafValues>
        3.5096681118011475e-01 -7.8447051346302032e-02</leafValues></_>
    <_>
      <internalNodes>
        0 -1 5243546 1.8752677366137505e-02</internalNodes>
      <leafValues>
        -7.7433787286281586e-02 3.3986476063728333e-01</leafValues></_>
    <_>
      <internalNodes>
        0 -1 2333389 -2.8514491859823465e-03</internalNodes>
      <leafValues>
        -2.9166227579116821e-01 1.0095561295747757e-01</leafValues></_>
    <_>
      <internalNodes>
        0 -1 12047 3.3220618963241577e-02</internalNodes>
      <leafValues>
        -9.5576636493206024e-02 3.1404817104339600e-01</leafValues></_>
    <_>
      <internalNodes>
        0 -1 249268 8.4213403169997036e-05</internalNodes>
      <leafValues>
        9.9237501621246338e-02 -2.6043123006820679e-01</leafValues></_>
    <_>
      <internalNodes>
        0 -1 1372955 -5.0164517015218735e-03</internalNodes>
      <leafValues>
        4.5303046703338623e-01 -6.1709225177764893e-02</leafValues></_>
    <_>
      <internalNodes>
        0 -1 79109 1.0523633100092411e-03</internalNodes>
      <leafValues>
        7.8250244259834290e-02 -3.3245065808296204e-01</leafValues></_></weakClassifiers></stage0>
</opencv_storage>
